solver_type L2R_L2LOSS_SVC_DUAL
nr_class 6
label 1 2 3 4 5 6
nr_feature 72
bias -1
w
-0.01273704459916617 0.007170877645086488 0.002209165008420096 -0.007221562617410718 -0.009442681213544321 0.005693176209940502 
-0.1182414769289364 -0.01219589119257403 0.003613300141054233 -0.006820818295514278 0.002635818124550211 0.00654976550173332 
0.0312940510250897 0.009882699158083798 -0.00103967005085174 -0.002034574209035825 -0.002029903120993272 -0.05237867682953204 
-0.01660586015857507 0.00165912960742995 -0.005721880565461974 -0.003468572512314077 -0.003126410416717053 0.008467842990706775 
-0.00717634464084251 0.01179145182301799 0.005182463996663192 -0.005851448865277725 -0.0325372619779739 -0.01223032523160511 
0.02103392374573178 -0.02941198101118313 0.003655356732395029 -0.009736693723034468 -0.008587893795288595 0.0698218016751843 
-0.05968209027369611 0.01287467571451864 -0.0009790768278752173 0.006113050615835768 -0.008936071776875287 0.06075716850728402 
-0.003728459763082626 0.0004575483198968122 -0.0004559502234423051 -0.005284446022143464 0.015652089811175 0.0163309973363006 
-0.05763428864277625 0.003791756473723846 -0.004930980805219485 -0.0006726124895214062 0.002802565414054652 -0.0231529686987137 
0.006663170997503886 -0.02702146143812339 -0.008435565171788912 0.009877888691894354 0.01381360467492725 0.002861318820948591 
0.02591117457218794 -0.01777006277572647 -0.004084197433147089 0.003987217815829574 0.004537370396824578 0.001026238804493115 
-0.05696263002064313 0.01191379554771807 -0.009512540198188795 -0.002735212101841856 -0.008427522697569842 -0.07012452637783809 
0.009936938901377394 -0.01586855931658526 -0.002805507510597746 -0.002710905517018169 0.01077903322387277 -0.04606214429228365 
-0.01160299015649521 0.00282958613816507 -0.001438327215232468 0.002465060038440169 0.02074946908687302 0.06070543771785923 
0.02095532825045579 -0.009642017265527852 -0.007728547355386662 0.001442632312757508 0.01998833308087627 0.001424808528250235 
0.004372820769785683 -0.009814762490631271 -0.003524006557669815 0.00310954365189123 0.01446708703392841 0.01482495393468098 
0.00160205267784045 -0.006327471605528874 0.001263660670369724 -0.001582198128603562 -0.001942166150946703 0.01289395741430254 
0.03244062663005771 0.0181953732952795 -0.002358292304681601 0.001276492574985785 -0.0006315922684019834 -0.004612354271700908 
-0.04771500325148135 -0.0003348058680238914 0.004842879388073809 -0.001459997581473577 -0.003607587966432294 0.02741785577265723 
-0.01468884122076861 0.001509406542215872 0.01034882764863199 -0.005302466040657092 -0.0001484837301240153 -0.02388712801287397 
0.001152342051929258 -0.003429660972320846 -0.002100875746839336 -0.0065531872375562 0.01355750317131446 -0.004784807444827131 
-0.0431751346107203 0.004526324442045021 -0.0005469684195162539 0.003727278995276715 -0.006736304537592898 -0.002682732389099053 
0.008593542361370509 -0.02967036821326484 0.004932667304218295 -0.01355439834510284 8.791990353181725e-05 0.05814250318932671 
0.009743239439467522 -0.01170021580356639 0.002309095921410666 -0.003742884055864614 -0.0305694935088204 -0.005141923431705431 
0.01738881519034113 -0.0008193922714743324 -0.003573614723830507 -0.001533854447522755 -0.004138900004622965 0.01757813242425803 
-0.002613757005732814 0.003876767448856027 -0.002511996768634726 0.007244319504005171 0.007498844042364504 0.00454373508762402 
0.05266690898168964 0.004799936085719549 -0.002076461984151159 -0.002191210421196909 -0.02343788704767391 -0.007021697552390856 
0.01353768871698007 0.01326203782883969 -0.01062658208574999 -0.007006593533998592 -0.01034734203769553 -0.03165967656633982 
0.01396399982566307 0.02121313383758469 -0.008001468776610154 -0.0137678176116432 -0.001625324956644848 -0.03232295585372386 
-0.04554314330101054 0.02727875402742539 -0.006466106242011028 0.01056651260472326 0.004884801192823959 -0.06317997485540729 
-0.003727855943827088 -0.01137013013663151 -0.0066075971451049 0.009555975263973124 -0.02272653176455431 0.03056136910427075 
0.006222477045785059 0.009080224352573168 -0.005277385090030372 -0.006212549738769445 -0.01327934203980273 0.04373508660494363 
0.03229559344904557 -0.01003127028836371 0.005764889494202697 0.0003602765841219038 0.02316771786332595 -0.03715359484059139 
-0.01570177558590662 0.01837287653397731 0.00271282543629358 0.0006074893646083313 -0.01583806165241131 -0.1425306483915873 
-0.06183193857553639 0.02379256996885163 0.003322641005701685 -0.003402592339428537 -0.00108299110994713 -0.106205841916908 
0.01050033530395393 -0.006371803602135884 0.002875750698782001 -0.01012273035208127 0.004605096272945672 -0.0353741114063193 
-0.03827955489412147 0.002487420328361118 -0.0002602056644747899 -0.001043362695727907 0.01193739860817195 0.04970958343993 
-0.05768672561850804 0.01104987839212241 -0.003239199307082074 0.004667792968821549 0.002480894048862492 0.05000640759354355 
0.007316568946015026 -0.001904853265352005 -0.001023530334619935 -0.00124087941105822 -0.01425144213452968 -0.01795038271200412 
-0.005885581209150054 -0.01665773583937621 0.001991552198842555 0.006371603594674154 0.006606091839735333 0.02979402011111693 
-4.789985486637903e-05 0.01768941225924069 -0.008802093222212476 -1.349559918243307e-09 0.009979322334355388 0.00027398715705796 
0.002017269664583352 -0.005900942353403474 -0.002217769210586133 -0.008865226582038619 -0.01609812216908418 0.04088890849189086 
-0.02220853688321711 -0.01053429418606105 -0.006058122629827014 0.008310527813638112 -0.005881072606431208 0.07606592621970081 
-0.0112936296520036 0.03471098834523057 -0.007655226395544869 -0.009498741509014383 0.007359747581323695 0.0160151616642661 
0.01841953408325668 -0.002010593582893312 -0.007481252202364301 -0.01245835933687669 -0.01935710322759227 0.02501545651260306 
-0.0240616523601232 -0.01173534276043281 -0.008197062790503881 0.007860347827326565 -0.02204906051387816 -0.005070800002379603 
-0.002873341599726016 -0.0123635846865149 -0.003712321086567602 0.01177817550939987 0.01508685985952265 -0.08505700589296476 
0.01889530742890549 0.01423918235905288 -0.006097533829733519 -0.00749024433696796 0.01020585151269064 -0.01868709046971821 
0.0001181171901981955 -0.006996681953272106 0.001126863305974746 -0.000664368984836604 0.00512823544709041 -0.01418353867133658 
0.02894301865306254 0.005273339942916271 0.002374353073360838 0.001496179222514866 -0.01523713382144636 -0.01371577448893366 
0.009240196488110917 -0.02844793059796942 9.753161369745795e-05 0.00539091825803047 -0.005554572548918154 0.02962153015455549 
-0.009577164271402584 -0.0301561695024929 0.003719213479312129 -0.0005369800012424319 -0.01029783510851732 0.003694990054102832 
-0.00572441663971622 0.0005269073096642387 -0.004278231707351253 -0.01079813739790223 0.002690278978610119 0.03816300355016925 
0.02728892537175896 -0.004752378479706154 0.00222119491266871 -0.001502061450387767 -0.01016060598821713 0.05306471295650902 
-0.009286171180828138 -0.001331450547661291 0.001815327580376275 -0.004491387041407985 0.01259505935835593 -0.03762094732287525 
-0.03081326568322341 -0.00763127253483862 0.00637675357930203 0.004072462824643817 -0.0148153298650043 0.0006751381410003798 
-0.0003620690260687194 0.003500994561013325 -0.001254219494103029 -0.007960589704027384 -0.0233896753002011 -0.004878902507823237 
0.07070510553690576 0.001500199607694418 -0.00572749446247247 -9.950039380129719e-06 0.001149235416084872 -0.09722840275823688 
0.06600089061093423 -0.00245399264431014 -0.001989997920046719 0.005773162205257911 0.001687543705713467 -0.07080120358480479 
0.004309656722711581 -0.00843814318052628 -0.00243369094967113 -0.004668291190169867 -0.0244052762663088 -0.002613462447900775 
-0.01094860497899206 0.008841988083406966 -0.00268283687061571 -0.009733274763151964 0.005315390053220695 0.07665820010935524 
0.03561158435940839 -0.01492720962510895 -0.007107822742643244 0.002846560649445841 0.00890329858516177 0.02430579082208652 
-0.01644070590598862 -0.02907606004796774 -0.005966804624397802 0.008971898771500906 -0.0101711804132913 0.0219042072669978 
-0.009607753840494448 -0.009109909551408986 0.001110333354385356 -0.00579956305347273 0.01393217537755415 0.03868960525721359 
0.01270738336086177 -0.01815678331945569 0.0007147944045562997 -0.003712308243205723 -0.0192408841256124 0.0007980002366961018 
-0.01788404071895746 -0.02857040040835877 0.002447875707345397 0.0005055414582716523 -0.006631540165022499 0.04811028554189084 
0.04567078511089388 0.002189570988878111 0.004486874818820018 -0.003254151871776578 -0.02212462166712022 -0.05228658377932113 
0.006562024168619986 -0.00503145783112479 0.0009317124394314832 -0.001699101683610031 0.00181491203830055 -0.02171259199806833 
-0.00423079566632186 -0.01128701761134585 0.007088682700731593 0.002788171637502509 -0.02241539520111496 -0.01765109066670256 
-0.0310078146577526 -0.0211098724339493 0.00604140705565884 -0.001361053201602635 0.005174346425704334 -0.04301699124153357 
0.03167061461203266 0.01495881134466146 0.002930537088228133 -0.01033397857620986 -0.01695500114817834 0.00934171429982753 
0.019708780563884 3.000413276717037e-05 -0.002299764096697336 -0.008482729613576202 -0.01809730719910174 -0.004745567215216551 
